s,0.4062407,-0.0049938075,-1.6147026,-0.84399384,-1.1038111,0.45716226,-0.9373951,-2.3078754,0.7764608,0.7062586,-1.2299391,-0.7670497,0.33513206,-1.1258441,-1.3441569,1.3246872,-0.47737795,-1.3080915,-0.18082677,0.5199589,-0.32076618,1.478561,-0.6965715,-0.120048575,0.57754266,-0.8389117,-0.09636587,-0.68626535,1.1327406,-0.5208109,-1.5279154,0.10369823,-1.1714154,-1.1567824,0.18721686,-0.91342515,-1.884255,-0.0732675,-1.3090285,-1.0518118,0.42678654,1.1727085,-0.08650861,-0.71238744,-1.3592237,-0.3496437,-1.1416198,0.28068295,-0.7521333,0.015361369,-1.0777187,-0.024825849,-0.36149445,-0.38547757,-0.31806096,0.7479645,2.0009573,-1.1149925,-0.9424085,-0.78710103,-0.4705099,1.3524737,-1.1018827,1.1460876
A,-0.66312826,-0.6017771,1.0473938,2.428963,0.80294466,0.015361926,0.20312513,-1.3329996,1.4430363,-0.20338227,0.27328324,1.8827453,-0.40620896,-1.4750813,-1.115728,0.4421917,-0.025006905,0.07391062,-0.7560396,-0.52084166,-2.5557804,1.1420066,-0.609302,0.683138,1.5638437,0.7082473,-0.37038696,0.21306756,0.14748512,0.9968882,0.4489499,-0.2754744,0.5662723,-0.08411591,-0.5643428,-0.6146024,-0.106428005,1.2383248,-1.0906389,-1.2314261,-0.023941068,-0.87137103,0.084819354,-0.35060498,-0.8170341,1.4731647,-0.9582607,0.0003060786,1.9285775,-2.1856642,-0.5217347,-1.5787696,0.6225311,-0.67084086,0.8854333,-0.7978173,-0.06362841,-0.7919803,1.4640845,-0.478871,0.3384665,-1.2332422,1.0133892,1.2771451
C,-1.7815151,-0.42628482,-2.2576814,2.2194803,-0.038376007,-0.26234093,1.9575812,0.057760295,-1.0834053,-0.41721874,-1.2351606,0.03163011,-0.7034074,0.6155736,-1.4971749,-1.5659056,-0.23430043,1.289735,-1.8797829,-1.0917851,0.33725867,0.83318293,1.313146,0.010113774,-0.25484914,0.6232425,-0.8497208,1.3456012,-0.5163532,-1.5622721,0.8268789,0.48778403,-0.003328707,-0.21977608,1.7503283,0.7467542,-0.31951952,0.21373598,-1.6089894,1.6106175,1.5656334,-0.5022223,1.1076685,-0.10223961,-1.3084105,-1.093974,-1.0461555,-0.6282571,1.5336047,0.39432803,0.19361813,0.27956182,0.5979425,-0.63470453,1.0762157,-0.93803185,1.0851413,1.6959419,-0.9258063,1.5400083,0.62410265,-1.0985038,-0.57365113,0.13285775
D,0.36406446,-1.247451,0.60597587,-1.4636472,-0.8742673,0.42881733,-2.2162626,-0.15538801,0.35469943,-0.58737963,1.0661559,0.38361916,0.71610624,-0.4646362,-1.6308523,-0.39813578,1.4676296,0.44035983,-0.53253585,0.13633944,0.59436715,-0.19137238,-0.40224254,0.18585496,-1.4646991,1.5101101,-0.76045436,-1.3839241,0.10623004,-1.6860046,0.72594196,0.14696726,1.0875204,-1.4915423,-0.66423184,0.03949189,-0.5947606,0.3706399,0.7690023,0.96287835,-0.74179786,-0.2856347,0.12758501,-0.3188326,-1.3311594,-0.50459355,-0.21150701,0.543338,0.40787566,-1.0758065,-0.54383796,0.56475705,0.4437696,-1.3424098,1.1572539,0.7101374,-2.7247696,0.76912355,-0.60186785,-1.4360079,-0.048555728,-1.4084483,-0.020478379,1.8044889
E,-0.8956146,-0.9388385,-0.99563646,0.20573074,-1.0787278,-0.8568276,0.90106493,-0.44799337,1.1573213,-0.77797294,-0.9996435,0.8703718,0.67057157,1.7581085,0.4650077,-0.78028065,0.19059525,0.36188447,1.164579,0.08417499,-1.4586374,0.9388165,-0.77967465,0.3100472,2.3222733,-1.3820523,0.769939,0.43040836,0.84897554,-1.1213717,0.577484,0.26443303,-0.04132599,0.74616474,-0.14123498,1.6612186,1.0566198,-0.4612863,-0.09499825,-0.25170583,-0.85853773,-0.29661018,-1.5117838,1.0320504,0.78674954,-1.4793497,1.3354175,-1.3365047,1.7119317,-0.3533433,1.5899435,0.34379342,-0.051464673,0.06258728,-1.1725594,0.6762229,-0.6302133,0.44911486,0.93371147,0.7532635,1.1524483,-0.16021709,-0.99379045,-0.8640396
F,-0.32331875,-0.3571898,-0.03827805,0.87553346,0.93711966,-0.3284579,2.2109146,0.5125511,0.5287368,-0.59674877,-1.1733509,1.0998298,0.65696466,1.9012599,-0.7263095,0.20266071,1.0842656,0.67845505,-0.22854854,0.52279675,-0.43834865,0.40286532,0.5887208,-0.35315633,-2.0053487,-0.6056835,-1.3838648,-0.43440154,-0.6067379,-1.4981587,0.26704654,1.2506192,0.58819693,1.7434745,-0.25532356,-0.9053108,1.2765706,0.2258603,1.0227453,0.45521,-0.7167294,0.30486497,0.29067963,0.7170902,-0.6294543,-1.3746009,0.7534688,0.7493636,1.1725777,0.9480099,1.0431284,0.6402204,-0.74454415,0.0040854863,2.2375665,-0.04436256,-0.8811828,1.3229856,1.8449124,-0.3389147,-1.0105002,-0.13815263,-2.0310133,0.77559173
G,0.42687923,-0.14078486,0.09931991,0.07323898,-0.25067982,0.4358756,-0.6535971,0.465171,0.18323609,-0.25555336,-1.0966464,-1.7140112,0.050590243,-0.071231164,0.6730865,-0.1490037,-0.83243364,-1.0069481,-0.54500026,0.33306402,1.1852473,0.3332669,0.68822545,0.75198287,-1.2172133,0.39316893,-0.44247013,1.0711013,-0.36548415,-2.181753,1.6977193,-0.9054681,0.15582362,0.017212177,1.0159425,0.56005365,0.29806337,-0.49337065,0.7761624,0.21450332,0.18178336,-1.922079,0.42835057,-0.42062324,-0.90125203,-0.09668409,0.09875678,-1.7444798,-0.64754766,0.7904777,-0.98231024,-0.8436379,0.0032878774,-0.35708934,-0.35333687,0.08028719,0.4398017,0.110505044,-0.6831244,0.89205253,0.05839389,-1.3806434,1.4240357,0.45375213
H,1.8841438,0.71818715,0.3849892,-1.2368431,-1.4683918,0.1389379,0.2806635,-1.1490661,-0.5380602,-1.3521532,-0.9092332,1.0499016,0.91067487,0.69485843,0.94350255,0.7859797,0.061933283,-0.8663423,-1.9459146,-0.55130744,0.20486975,-0.93879694,1.4681835,-0.48674726,-0.42822435,-0.25985226,-0.59106314,-0.22081976,-0.24884035,-1.0863109,-0.04647957,-0.6076987,1.5722257,-1.4740503,0.9490624,0.55274206,1.2183423,0.3000042,-1.3883662,-0.37992406,-1.2265127,-1.2459267,-0.116995506,0.38120556,0.79946095,-0.8866635,0.30531946,-1.0948097,0.9906682,0.37321264,-0.35071093,-1.4273291,0.5147375,-1.4059383,1.429967,0.7446869,-0.9049679,-0.8982982,-0.8423731,-0.023999713,-0.46854678,-0.7674451,-0.35073775,0.8165954
I,-0.54614484,0.42804864,-1.4990455,-1.5989488,-1.3557285,-0.33987385,-0.60140586,0.9769338,-0.121815935,1.0907395,0.045716964,-1.0101447,-0.2085222,0.43063107,1.1755502,-0.61980355,-0.37475905,0.41402447,-2.1845617,0.74742883,-0.23059526,-0.30865997,0.16751646,-0.2997954,0.21701661,0.41889918,1.2766336,0.40447816,1.1750462,-1.5413456,-0.2031556,-0.35158902,0.6579889,0.6501689,1.8272425,-1.5978045,1.3524606,-1.4484128,-0.053258676,0.80444247,-2.157574,-0.38391402,0.8113093,0.3811947,1.3994604,0.17827958,-0.5063632,-0.9377791,0.29093924,0.29674876,0.34675935,-0.8648365,-0.16422175,1.6699982,-0.33806115,-0.76154906,0.66866434,-1.762443,-1.1689128,1.0507216,-0.0981761,-0.12565798,-0.12858726,0.13326532
K,0.25459102,-0.19086899,0.032413468,-0.892788,-0.8019904,-0.21600159,0.5145685,0.16729929,-0.106800504,0.39759475,-1.024888,-0.28701624,-2.1727476,0.22067079,0.652187,0.59348446,-0.14795098,0.10280939,-0.43189082,0.8700391,-0.30597946,-0.20460719,0.8707899,-0.45845485,-0.8927456,-0.4099847,-1.5211594,2.326172,0.65396494,-0.76831824,0.1222781,-1.1852566,1.150798,-0.14323951,0.1823545,0.02595629,-1.0156626,-0.104662605,1.9636155,3.2270947,1.0525678,1.3657873,-0.37510762,-0.18650763,-1.0479864,0.0770129,0.12487717,0.5271126,-0.44612956,1.9769152,-0.33711496,0.50290316,0.3638207,0.11395202,-0.4204113,0.4221539,-1.2449933,-0.6509262,0.18740018,0.53901684,-0.026536468,-2.5360806,-1.1544983,-0.86360097
L,-0.178275,-0.5421324,1.6944335,0.14859565,1.0289153,-0.2893548,0.5344754,0.2885878,-0.12597434,-0.35303771,1.3178653,-1.4731258,-0.7496743,-0.70107377,-1.2718389,-0.29738006,-0.41872293,0.32320052,0.2864809,-0.58692604,0.16000834,-1.1730112,-0.36812985,0.16127533,0.28580666,-0.567943,0.7117506,0.34085092,-1.1812981,-1.3779927,0.26875836,1.3876699,0.5085785,-1.6012839,-0.73109776,0.29342985,-0.8957873,-1.396172,1.0058254,-0.5270742,0.7059955,-0.870545,0.70897895,-1.6606213,-0.288019,-1.5184871,-0.5587347,-0.38438568,-0.4244998,0.12240646,-1.289095,0.7127642,1.2959901,0.9900609,-0.7614976,-0.6019945,-0.24523069,-0.079981744,0.18491544,0.29570478,-0.108817585,-1.0011041,1.4058943,1.9525977
M,-2.5504014,-0.87689865,0.039037917,1.7104704,0.9558293,2.1709378,0.78379667,0.33449355,-0.31989497,2.0263124,-0.7936084,3.1434515,-0.5018576,-1.9819791,0.27745488,-0.89190125,-0.4016992,0.67663044,0.5247682,0.04935814,-0.13061652,0.07529947,0.10774967,-0.6461659,-0.22485708,-1.4535321,0.31384146,2.0113595,-1.8955786,0.08173445,-0.17184457,-0.5715438,-1.4058707,0.5113772,1.2723302,1.3251014,0.25113764,-0.9098523,0.21569893,-1.7169241,2.3895543,-0.46236157,-0.17991012,0.1893625,-1.8659301,-0.682588,1.0321592,0.152479,0.86623436,0.13152926,-0.62256736,0.008801433,0.13367423,0.072149634,-1.0330237,1.9178377,1.57391,-0.7029591,0.20526677,-1.2110935,0.09385559,0.32205382,0.30151457,-0.24714594
N,1.2712561,1.0317131,0.40429798,1.2088957,2.9315078,-0.9552562,0.83216244,-0.62425643,0.16720715,-0.6211414,0.6146933,-0.21737862,-0.6348533,-0.3243459,0.020031953,0.15051459,0.23025517,-1.000221,-1.9029081,-0.9484088,0.11738035,0.49968207,-0.9233949,0.75204116,0.37151074,-0.004751007,-1.7578483,-0.2365,0.99239796,-0.0069517763,-0.34458706,-2.5878298,-1.6642541,0.048537657,-0.16465914,0.7496025,0.10276857,-0.32816085,0.23066974,0.73236394,0.69537735,0.31698284,0.41268256,-0.25414905,-0.6806281,0.51645917,-0.6807755,-1.3639449,-0.2318186,-0.8647098,-2.207705,-1.3470805,-1.5226805,0.6322887,0.23429173,0.3587077,1.3391471,0.6371753,0.45005208,-0.41919374,0.27506408,0.596161,0.2137179,1.3752805
P,-0.018662248,-0.33467308,0.87860733,-0.6086051,0.9051527,0.6252483,-0.5161039,0.5980644,-0.75445974,0.8880584,0.7431664,0.102823325,-0.55182457,0.28660902,1.5086771,1.1652124,-0.17194721,-0.15793243,0.0345787,0.14950934,-1.2452031,0.1624397,-0.8399637,-0.4720375,0.27207953,-0.59452343,0.380984,-0.11753256,0.00020779713,-1.2470188,0.00689332,-0.6441337,0.6127902,-0.631492,1.2888672,0.6635616,-1.2753901,-0.13772196,-0.3973795,1.6056094,-0.75701344,-0.4703868,1.2685498,-0.64727134,1.235822,0.6729513,0.148362,1.3379674,0.44404528,-1.7580482,1.2353494,-0.7574547,0.70776665,0.43419543,0.055088036,0.5116903,-0.3926013,-0.87887025,-0.5935602,-0.13566713,-2.5860486,-0.08239276,1.1285019,3.1310089
Q,0.22425686,1.1290233,0.14272517,0.83206254,-1.637552,-0.9769692,0.8072292,-0.5019008,0.71828765,-1.603116,1.9465127,0.20216401,1.6272568,0.4646273,0.47861782,0.5239116,0.16269076,-0.39008686,-0.61782044,0.56320846,-0.7181417,-0.77339834,-1.7395495,-0.29116565,-0.31217876,-0.1882397,0.15161133,-0.53659505,0.040571846,-1.7638823,-1.0163561,0.5802573,-1.1083393,0.071985535,-1.4449989,2.4068396,-0.97475374,-0.9087866,1.6239945,-0.9414757,1.3256283,-1.5829923,-0.5888257,0.038991164,0.57331055,-0.15026347,0.22217971,-0.2721889,1.8113389,0.14536431,-0.60083115,-0.97693944,1.0702183,-0.058663137,0.41822642,0.41428995,-0.028070567,0.19796507,0.79041415,-0.4794701,0.5347465,-0.9783443,0.09293239,-0.15448195
R,0.439478,0.4729471,0.8327262,-0.3969944,0.25930044,-0.062271632,0.3800693,0.73545635,0.29228964,0.555536,1.1441807,0.0010635331,-0.6005723,0.520171,0.023829712,1.872644,-1.0504463,1.3351107,-0.50358486,1.1528893,-0.3900126,0.61791474,-0.13705786,-1.287681,2.3260076,2.3257535,0.4105677,-0.90453863,-1.7148008,-0.5733364,-0.7526284,-0.31724626,-0.30448782,0.66298354,0.61626095,0.16450572,0.45586792,-0.20774592,0.14783026,-0.7698006,-0.741542,0.7578084,0.90509135,0.96539146,1.4231972,-0.35683846,-0.0624298,0.35094777,0.4191546,-0.34701514,-0.6180427,-0.94959736,0.57207704,-0.46038488,-0.7628429,1.0524678,-1.3948989,0.5437047,0.8004536,-0.9954891,-0.06998278,1.4790425,1.385503,-1.1679351
S,-0.8729797,0.5178832,-1.4827046,0.5926414,-1.6626881,1.1454525,-1.0892009,0.60180706,-0.7609862,-0.77536565,-1.288279,0.80603135,-0.049613275,-0.3074042,-0.5602889,0.56385005,-0.92105013,0.64555573,-0.13022244,0.24280545,0.7633369,-1.0682309,-0.88298684,0.078886904,0.49377212,1.1429124,-0.26055303,1.3400166,-0.70919144,-0.3314312,-0.46135768,0.6166157,0.7556219,0.17239891,-0.089682154,0.7728254,1.4489597,-0.7033889,0.45194563,-1.0092199,-1.9903114,-0.46423718,-0.59979564,0.2978364,0.6778484,-0.639811,-1.2959979,-1.4561784,1.0976394,0.4128494,1.0125709,-1.2185607,0.052465275,1.6759893,-0.7267707,-1.0587538,1.0857912,-0.9200727,-0.44866416,-1.5506428,-0.6632275,-0.5861501,-0.16229983,-1.520765
T,-1.3790574,-0.9779424,-1.592731,0.6273432,1.1193917,-0.04848134,0.9475358,0.123174936,-1.1781292,1.2884154,-0.26465333,2.4388707,-1.1340134,1.56475,0.6175681,1.2094476,-0.4063945,0.05846757,-0.442485,-0.4583138,-0.32608014,-0.6291881,-0.17286457,1.0256046,0.59764296,1.180584,1.1650343,1.5911934,-0.2693484,-0.4413233,-0.35098475,-0.9816409,-0.02722904,0.5403091,-0.69953454,-1.1862754,-1.3874195,0.9155061,1.319667,-1.8417449,0.2645267,-0.06038337,-1.3226627,-0.7911088,2.4753752,0.0064522135,0.38192773,-0.1779766,0.2817848,-0.13750476,-0.608113,0.32184532,0.46071064,-0.09160254,-0.9651887,-0.05061417,-0.40334794,1.0731502,-0.18405478,-0.25823373,0.3900233,1.3263044,0.39569154,-1.2826663
V,0.2979257,0.87133867,0.6003197,0.5530391,0.09769737,0.094382286,-0.52808565,0.27283603,1.2552097,-0.34922153,-0.07415648,-1.5722212,0.80311984,0.45587167,-0.44005105,-0.34954777,0.16319093,0.3600337,0.45457518,1.2157072,0.09303271,-2.7990708,1.3010579,0.49086264,0.022326522,-0.08904727,1.46105,0.52902293,-1.028319,-0.2415805,-0.03482307,-0.50900036,-0.34216544,1.7009878,0.5091917,-1.0157778,1.5049735,-0.43286163,-0.75994027,-1.1697767,-0.6697039,0.5279388,-1.3492529,0.25519308,0.6122721,0.9396002,-0.106351696,-0.36848497,-1.6301466,1.2389561,0.9424072,-0.047142293,0.45398936,-0.6206888,-1.0979197,0.8730064,0.11370701,0.14472462,0.51229435,-0.012823143,-1.7867488,0.6399166,-0.35698092,0.9343956
W,0.702866,1.1085037,1.8615499,1.2163479,-0.45994437,1.868487,2.0427616,1.3456863,-0.15430726,1.3107426,-0.17833228,-0.03276784,-0.99933356,0.61607116,0.67213386,-0.19530137,0.55540454,1.1123284,0.32042465,0.042692613,-0.6073442,-0.9754827,-1.217557,0.69655037,-0.7144967,0.43819985,0.93318117,1.2353636,-0.025249735,1.3728603,1.1756233,-0.75348026,-2.0887077,1.2716556,-1.0959666,-0.28122064,0.7117656,0.8995111,0.53582215,0.77628464,1.2226298,0.3263074,0.32088816,-0.6314695,-0.5304614,1.9307173,-0.43738416,-1.8213748,1.1023649,0.7324701,-1.3679223,-1.0754247,-0.016113263,-0.0022430266,-0.51990247,1.6087939,2.3225904,-0.3888579,-0.6311493,-1.4442127,-0.68571687,-1.1026931,0.34018672,-0.21446583
Y,1.183271,-0.61431825,0.22718392,-1.2757039,1.0785354,0.31292993,-1.3113439,-0.05579601,-0.83954144,2.2551565,0.31084254,-0.45978692,-1.9833843,-0.045541536,0.81458884,0.22704498,0.18640243,-0.21976407,-1.0864593,1.3761148,-1.342982,-0.07035898,0.73110324,-0.29879552,1.6905558,-0.27618527,-1.2299463,-0.3675369,-0.79947674,-0.7343583,-0.2608977,-0.010441736,-0.41039425,0.56362873,0.10640196,-1.8881507,-0.23581141,-0.31247976,-0.1767308,-1.0013179,0.29328406,-0.75068825,0.6971773,-0.42985275,0.43293396,1.0556552,2.592896,0.06110884,-0.30514836,0.23696688,-1.2318685,1.2512977,1.4812031,-0.43077356,-1.9801562,-0.089203216,-0.2838772,1.8681169,0.682765,0.9143841,-0.29396248,0.80793,-1.4177526,-1.7402142
e,0.34317142,-0.44358745,-0.6855944,-0.65690506,-0.7420197,-0.8292176,-0.7526735,1.1922491,-0.39966914,0.7284856,-0.44741806,0.9676441,1.0535198,1.1806087,1.21732,0.66861653,-1.2511115,1.1230425,-0.03834634,-0.18659449,1.6680094,-2.342262,0.59341925,-1.9906787,-0.6415935,-0.37301338,-0.5621752,-1.4081038,-0.6808186,-1.8962419,1.2179589,1.1755279,0.24584687,-0.5920294,-0.5458242,1.776648,3.2311327,-1.185346,2.2371032,-0.09646642,-0.81695616,-2.8408113,-0.7811672,-1.0193875,1.9833511,-1.0284032,1.1311004,-0.61696005,-0.1367838,1.2645884,0.21720448,0.089201294,0.34072012,1.0903798,0.6952477,-0.50957066,0.37624994,0.29075006,-0.07208746,-0.8445377,-0.3310887,-0.52271676,0.36643952,-1.2323934
