s,-0.023273833,-0.07988801,-0.44041577,0.41633305,0.8491892,1.8258855,2.008475,1.2540622,-0.79583675,0.2603353,1.2773813,0.7388736,-1.4942317,0.6617795,2.2549677,-1.1395164,-0.3569125,0.07729787,-0.6645856,-1.6911979,1.5601903,0.97188044,-0.15965606,1.8849676,-0.2857594,0.59121436,0.9449973,0.5783177,-0.30973002,1.2869157,-1.2714813,-0.78213334,-0.3500957,1.3975393,0.033369586,-0.62912405,0.63819027,0.050838888,1.2755884,-1.5559181,-0.9211506,-0.9373367,-1.1555544,0.23025417,1.5054176,0.3481557,0.99103653,-0.65531546,-0.19885473,1.636687,0.8242967,1.1910075,0.34909543,0.6442535,-0.38239524,-1.4008231,-0.109205425,1.4563569,0.47060567,0.73336446,-1.1578796,1.3557408,0.26913354,0.40951425
A,0.459373,-1.0909594,-0.0744813,1.2882804,1.5222404,0.55881447,-1.4766139,0.42862508,0.78203905,-0.545599,1.7271105,-0.3889111,-1.9054554,0.17581238,0.865043,-0.23237537,-0.49927965,-0.5324245,-0.04194593,-0.38404638,-0.052773442,-1.7283844,-0.98029095,-1.2781881,-1.1968505,1.484899,0.23707128,-0.4950116,-0.6721036,1.076206,0.698521,1.4592079,0.2198647,0.5655529,-1.5520527,2.0792506,0.8348607,-0.45722026,-1.0319854,-1.0669608,-2.0636551,0.73266894,-0.4851341,-0.218362,0.31574523,-1.1804929,-2.1861265,-0.22185737,1.0444144,-0.5622007,-0.29589397,0.28938207,-0.42233425,-0.07351722,-0.15115637,-0.7886283,1.2605311,0.21446772,-0.29530203,1.278841,0.65837705,-0.92014706,-0.83710307,-1.4196016
C,-1.1976016,0.080977395,-1.1903825,0.7470191,-0.8314012,-1.6254445,0.92102826,0.01899936,0.35296136,0.927924,0.039959256,-1.1908575,0.7544104,2.0149322,0.87778664,-0.814061,-2.3500388,0.8927133,0.06310186,-1.3615314,0.3482096,0.77450305,0.2824385,0.5733572,-0.9590182,0.5276641,-2.848229,0.7673147,0.21288465,0.9181919,-1.2081465,1.1934896,-0.7340102,-0.49788314,-1.6245992,-1.8557858,-0.675092,-0.21998516,0.090415604,0.11279396,1.3540403,1.4619911,0.82731634,-2.1464574,2.0847814,-0.3362858,-0.6366003,0.6466985,-1.1493906,-1.5091923,0.5708878,0.13358888,0.30170587,0.34095183,-0.5700936,1.4436562,-1.5134704,-0.8410775,-0.053733964,-1.039905,0.6410487,0.1566165,-0.026051879,-2.0384562
D,-0.79541546,-0.56230634,-1.3541031,1.8390163,-0.41553813,-1.761629,0.27925754,0.7662814,-0.53965724,-0.8832887,-0.12392386,0.3320181,2.213869,-0.5602972,-0.0017424324,-0.55050874,-0.2665663,-1.4111204,-1.095464,0.951079,-0.019952703,-1.215894,-0.7402516,0.08132603,-0.16923636,-0.58398944,0.701453,-0.278977,-0.52193224,-0.20367539,-1.7517124,0.5879281,2.2721217,0.3335213,1.4162425,-0.15163521,-0.421475,0.3098629,-1.186672,0.9514331,0.8411828,-0.4112204,-2.2175536,-1.6696426,0.010383871,-0.26488155,0.44492555,0.3845695,-1.2830939,0.19751014,0.22068378,-0.91165036,-1.7402158,0.025503002,1.8939687,-0.18751994,-1.4931377,-0.21728192,2.168342,1.0954752,-0.4923464,1.3977313,-0.24764538,0.07399789
E,0.53636,0.49162686,-0.40759423,0.8996841,-0.81179506,0.38132727,0.33012366,1.106644,0.35382766,0.4354127,1.7454617,-1.1657304,0.8875156,-0.09065375,0.22834076,-0.22479926,0.65339506,-0.5683516,0.2921621,1.3608757,0.06005955,-1.6293026,0.08468518,1.5914357,0.87318504,-0.17212865,-0.028596958,-0.6434194,-1.6883848,0.18417868,-0.9440509,1.450653,-1.9051709,-0.7307187,0.13003568,-1.9710617,0.50325197,-1.0639477,0.57887685,-1.7007976,0.3930826,-0.75169486,0.4442485,-0.42524913,1.1360097,-1.1208186,-1.0001919,-0.057684947,0.20808256,-1.1656344,-0.4267777,-0.0880409,-0.7032401,-0.12179076,0.2918479,0.8435035,0.29847842,-1.5888304,-1.9300301,0.004317808,1.8197628,-0.53469574,-0.26221886,-0.041946054
F,0.80717915,-0.034508836,0.27308965,-0.3189996,1.1220564,0.47670475,2.512416,1.1933941,1.2115479,0.73497206,-1.8932825,-0.6514558,-1.6868598,-1.4778718,-0.4804739,-0.8681022,0.9268611,-1.4293767,0.15451893,-1.3826482,0.12774858,1.1114073,-0.70237094,-0.8105307,0.34856993,1.0127242,0.60106456,0.11708167,-0.24709143,-0.7896838,-0.42083576,0.5135078,1.3766603,-0.07057246,1.458698,0.09612406,-1.3283541,0.6009447,0.19478416,-0.37657905,-0.95521957,-0.42381224,0.29800242,-1.0523736,0.26889503,0.58915937,0.50405383,1.2742518,-1.8267808,1.249044,1.1944278,0.9993698,0.16026825,0.54058284,-0.32939142,-0.45813483,1.0291767,-0.8974937,1.2367251,-1.7007202,-0.4889212,2.0595427,-0.0030279462,-0.38754892
G,0.58612984,0.47256404,-0.33124626,1.1147772,0.26421803,-0.7079028,-0.87717366,-0.63637286,-0.81422675,1.4689769,-1.5326692,2.4343922,-0.5359321,-0.5786626,0.034526933,-0.014336766,0.7109932,0.42562947,-0.31813994,0.50803924,0.6467914,-0.41463807,0.5928724,0.30968076,0.5949745,0.13567637,-0.1811116,-1.9068358,1.3738818,0.056681205,-1.1179365,-1.3199866,-1.4513307,-1.1207522,0.5474997,-1.6454179,0.77790654,-1.9573549,0.7820044,1.1959956,-0.00060591655,-0.76201236,0.35237798,1.297382,0.48733753,0.88358927,-0.637195,-0.26935056,0.17277123,-1.954617,0.03621337,0.5162224,1.4458679,-0.8294381,0.6187692,-0.97407675,0.9975581,0.67180777,-1.2074357,-0.17873278,-0.77642095,-1.4783964,0.69268143,0.035715617
H,0.43693274,0.32269913,-0.72187424,0.7965893,-0.1926498,0.5442298,-0.26640576,0.3606357,1.4135705,-1.1940746,-2.0046957,0.9901753,0.04313383,-0.015142961,-0.093889125,-0.1376711,0.2771973,-0.8779494,-0.12502453,-0.5068198,0.58022505,1.8200641,1.8626794,-1.0957012,-1.4685377,-0.327999,-1.7638794,-0.04977468,1.0868461,0.97239393,-0.25703165,-1.2383659,2.09181,-1.1449512,0.7201991,-1.1223651,0.4597374,-1.0289458,0.1057618,0.15169875,0.089831635,-0.98219067,0.45713457,0.7322577,-1.4374892,-0.70288247,0.73065084,-0.785305,-1.9594859,-0.1977449,-0.37361556,-0.8922811,0.1873616,-0.23141997,1.9251443,0.22173521,-1.225789,0.42798033,0.32597345,-0.8467177,0.9072771,0.09806211,0.33984825,0.61763656
I,-0.16156574,-0.29633713,-0.6386277,-0.7618572,0.2146616,-0.19217592,-0.46240488,0.2003601,-2.3558114,-0.43136042,-0.7726026,-0.8883206,-1.0665421,0.6136943,0.39562222,-0.3293529,1.170635,0.11651581,-0.38967618,0.28068542,0.18608999,-0.87616706,-0.22300021,-0.015370589,1.2090886,-0.96206295,0.10416762,0.5075994,1.1697187,-0.88547,-0.5847589,0.12697804,-0.18058862,1.294649,0.44681978,2.0532534,-0.42789942,-0.63165516,-0.25476608,-0.8507944,-0.6665754,0.08143974,-1.7705586,-0.5884418,-0.42086822,-0.37070128,-0.692044,0.02548115,-0.6509562,0.24815878,-1.1123928,-0.662004,-1.4818316,-0.073123224,-0.038084157,-0.28083053,-0.43367434,0.6395351,0.6442627,0.24246208,0.20082362,-0.3492197,-0.84755886,1.6464684
K,-0.6906628,1.6756247,-0.332094,-0.67934203,1.5721158,0.77093977,0.12001471,-1.1919056,0.95762473,-1.1480925,-1.1718323,-0.8202662,-0.9100607,-0.8220018,0.39838454,-1.5361171,0.82955116,-0.18049738,0.9755147,0.44118264,-0.16074768,0.20706715,-0.27948472,-0.7029852,-0.3974823,0.44113907,2.2805722,0.9633632,1.5038276,1.4658161,0.17045204,1.7853446,0.58449346,0.7576122,0.24789418,1.4069437,0.16412736,-0.8644972,0.76341176,-0.32258564,-1.3006954,0.8037215,0.48781586,0.14519657,0.04286927,0.14954163,0.43531948,1.0363791,0.15998077,1.3675278,0.3205892,0.94470423,0.26287887,-0.13807401,1.1380726,-0.61443156,0.7256414,0.36255533,0.08600898,-0.5302787,-0.8741905,2.0338862,-0.26283842,-0.07009474
L,1.7496221,-0.54302335,0.1991282,0.35093856,1.0802523,-0.10092646,-1.1690131,0.9493442,-0.6866667,-0.0685311,-0.677798,1.4601219,0.09186995,0.091836676,-0.20216464,-0.6770375,-0.2554416,-0.77114064,1.4656153,-1.3990657,0.6685395,-2.0648828,-0.5157484,0.9584078,0.35809016,-0.23341367,-0.16383384,0.8207044,-0.18591794,-0.69297993,-0.416971,1.597053,0.5776353,0.50871783,2.065193,-0.66933936,0.9757478,-1.3630217,-1.0960135,0.32313967,-1.0877901,-0.771052,-0.7103881,-0.7070482,0.86551255,0.053470194,0.601248,0.2801627,0.76170933,-1.1944386,-1.3611299,0.19869469,-0.18950321,0.6331494,1.1409568,0.6673319,0.3060147,-0.30223003,0.7342591,0.04441361,-0.6569404,0.64094883,0.7840575,1.2374004
M,0.4758386,-1.9466009,-1.7239424,0.05038314,-1.3596928,0.9119568,0.5494718,0.3625777,-0.7890945,-0.5268599,0.40507716,0.7923608,0.7178677,0.38023922,-0.1752875,0.8002495,-0.6173925,-1.4042813,0.21241872,0.6963988,1.2994019,-0.48829314,0.084366806,-1.4651372,0.509476,1.3311107,-0.41781157,1.2692726,-0.35350773,0.25032216,0.8787894,0.50933784,0.1768933,0.16521394,1.2710711,-0.42813712,0.15982042,0.65600467,-0.566575,-0.54354143,-0.2469391,0.33675018,-2.0212605,-0.44129738,1.7703569,-1.4056438,0.16489466,0.37048152,0.026978724,-0.25253636,-0.7893186,-0.45190167,1.0270767,-0.8358643,0.01590115,0.69050944,-0.7557726,1.0533477,-0.8986899,0.23518343,-1.4605423,0.3711543,0.33661982,0.39830652
N,0.8593184,-0.6433611,-0.3914883,-0.29013446,-0.7752001,0.5008877,-0.09305031,-0.010975727,-0.6280889,0.86483926,-0.41622686,-0.6043846,1.221146,-0.74689144,-0.74197894,2.1943796,-0.49473026,-0.5285684,0.6866948,1.4834595,-0.63658476,0.67313087,1.217282,0.45072973,0.61419684,0.55219525,0.91814643,1.0534742,-2.7321222,-0.031417526,0.48533008,0.35083216,-0.90717906,-0.209992,-0.07038438,-1.1324761,1.6858529,0.022234382,-0.70480734,1.1175476,-0.38592717,1.3444835,-0.5620051,1.185229,-2.391262,0.5707363,-1.044123,-1.0608188,-0.07475547,0.6766174,1.0454925,0.022329533,-0.2690752,0.68113,-0.46587178,0.06954768,1.6728498,-0.022384778,0.6324332,0.16119552,-0.40132785,0.17016998,-0.32876286,0.35217687
P,0.28473943,1.3701394,-0.6114118,0.4763241,-0.65595007,-0.22341344,1.8256687,0.9989849,0.6195438,-0.37350297,-0.9537399,-1.0642741,1.4942274,-1.0143123,1.5740299,0.25188643,0.87899286,0.30399674,-1.8622495,-1.6938782,0.3984005,-0.27961698,0.054501746,-0.18353944,-0.76067936,0.6222242,0.7445111,0.04248952,0.5355752,0.9591453,0.023133846,0.74528146,-0.2487166,2.0717075,-1.1913266,-0.11816231,-0.30571732,0.13719386,-0.3316564,0.06657699,-0.003481819,-0.4105536,0.95549566,-0.65455127,1.3433545,-1.6951889,0.85631937,0.53218484,1.6768806,0.059874598,-0.55917025,-0.1134974,-2.0209076,1.172334,-0.27437162,0.5175612,0.23541398,-0.1712051,-1.4165721,0.31894153,-2.206909,-1.6653458,0.0036429812,-0.09844625
Q,1.0807273,0.03322631,0.68992186,-0.18533537,-1.5262427,0.08333161,-1.1915652,-0.55663884,-0.30457267,0.2791655,-0.029737541,-0.010309922,0.42358902,0.8748902,0.79784656,0.86077845,1.4795114,1.2012475,-0.36431277,0.76007986,-0.13200396,0.011179269,-0.547811,0.5535454,-0.5757754,-1.8350521,-0.75487745,-1.3185654,-0.5191442,-0.057097264,-0.82717943,1.25628,0.52495134,-0.7611797,-0.42112753,0.14659984,-1.3617766,1.1401178,-0.39656082,-0.9134852,0.5224333,-0.3406163,-0.2989475,-0.47779155,-2.1262443,0.073189944,0.5548428,-2.121254,0.9673,-0.73262084,0.73632896,-0.35045394,-1.531448,0.9206894,0.5891314,-1.2113992,0.8341594,-0.32747233,1.0252695,0.16187647,-2.5795748,-1.3604879,-0.37507275,0.25569385
R,0.14646801,-0.93341094,1.1702056,-1.4079206,0.4561033,0.6784391,1.4788063,-0.4338197,-0.5379494,1.3250328,0.1464208,1.4264646,1.665784,1.2452925,-0.29622868,-0.8051153,-0.80292434,0.89356285,-0.052534267,-0.66084754,-0.19325171,1.360471,0.6702379,0.7919559,0.19528101,0.77697223,-1.2196717,-0.23899736,-1.0304495,0.3133219,-0.31674582,1.0428087,-0.60829425,-0.019412113,1.2229246,-0.4344996,-0.39167824,-1.6631415,-0.744605,0.025103783,1.7068207,-0.66620433,0.20456278,-0.65376186,1.7555102,-0.74813783,-1.5002682,-0.9612504,-0.38088235,0.73853034,-0.014353569,-0.24123204,1.7718215,-0.8960585,1.8768827,-0.13019964,2.266139,-1.4877048,-1.0018336,0.9387426,0.116377674,-0.89458853,-0.43530583,0.47194892
S,-0.059618067,-1.7256361,-0.27504712,-0.7440274,-0.66114664,0.076624,-0.23556046,-0.032702085,-1.9093968,0.6220502,-1.113066,0.21782368,0.7954774,0.89416844,1.4570034,0.8290817,-1.5339233,0.057516515,-1.035182,1.1572139,-0.7778339,0.52610594,1.2121634,-0.3441615,-0.8823518,-0.5371103,1.8850348,-0.57912946,-0.88592863,1.2096106,-0.6921146,0.48340163,1.8160704,1.7518519,1.041819,1.2392213,0.9484502,-0.5515863,-0.93630403,1.7104405,0.49263638,0.2979256,-1.4871466,0.35027987,-0.88969254,-0.63859046,0.5321908,0.4572368,0.4336664,-0.7698019,0.3375419,1.7168572,0.010680828,0.113738015,0.9266445,0.20373362,-1.009973,0.71864694,-1.3971547,0.6891931,-0.19148767,-0.175798,0.273369,-0.5314619
T,0.4295755,0.5049645,-0.5981043,-0.8926603,1.3755401,0.3023296,-0.49867007,-0.2685884,0.92387104,1.5438259,-0.6243947,1.8798386,-0.23565884,0.18701728,-0.2205908,0.3728074,-0.053751644,0.55849886,-0.6365362,1.3966564,1.0777239,-2.3732953,-0.03953319,-0.7505317,-0.10875757,1.2678467,-0.19393985,-0.6520138,-1.4137762,0.40368137,0.9386439,2.5861151,-0.87115604,-1.186081,0.22806233,-0.051917806,-1.3304597,1.3198218,0.22389077,-1.3212826,0.013247809,-0.25224552,-1.3098887,0.49800497,0.0034757138,-1.3625911,-0.7575732,2.3614237,-0.6189536,-0.026924813,0.57700646,-0.25952506,-0.45186818,-0.6236556,-0.9779936,0.5961074,-1.0155827,0.17880972,-0.032188445,0.65841866,-2.0765512,1.1917044,1.0554106,0.3315711
V,-1.0854897,0.88288623,-1.5027783,0.032838758,0.5791369,-0.289913,-0.31701922,-0.81826043,-0.27458286,-0.736561,0.26406625,-0.44576424,-2.3000197,0.91571295,-0.03760507,-0.33995998,0.43440333,-1.4827256,0.14880762,0.020309215,0.9630115,-0.27005228,-0.33283132,-0.16242845,-0.65067667,0.23080865,0.34258386,-0.119189456,0.817592,2.667903,0.8536228,0.16258572,-0.43322065,-0.49355924,0.09498112,0.686136,-0.2249422,0.30026412,-1.4047656,1.1203783,-1.1705912,0.9913102,0.3640578,1.9119523,-0.3180086,0.25995222,0.22686467,1.4157647,1.034695,-0.5304663,1.1447288,0.1645602,-0.29887998,0.16187209,0.3422146,0.0434101,-0.84120256,0.008061714,-0.9788384,0.21535169,0.21175332,2.0057864,-0.13888161,1.0150819
W,0.20161237,-1.6635392,-0.4367962,0.50072205,0.008656569,-0.18593447,-0.4153176,-0.069612,0.23066318,-0.23742327,1.2279223,0.40159273,-0.9772964,0.62585413,-0.7412342,-1.4865241,0.4773446,0.4948602,-0.20366412,2.5337543,1.2243452,-1.0558299,-1.1275688,-0.0805426,-0.31905097,-0.29470313,1.5543735,-0.23757926,-1.1501099,0.09015381,0.3839592,-0.20593035,0.57834417,-0.7540629,0.21023676,0.9929491,-0.3804436,-0.770204,0.58172214,-0.6784279,-0.9878181,-0.42068216,0.7812563,0.7250179,-0.29945666,0.48728552,0.27175954,1.6214875,0.2647925,-0.4743878,1.4959016,-0.10205582,-0.41722944,0.9382414,3.228275,0.99666125,-1.3682362,-1.0955747,0.6763535,0.15815656,-0.695817,1.4968023,-0.32304898,-0.8422056
Y,-0.17993933,-0.75368625,1.942171,-1.0232397,1.1384509,0.8748521,-0.41379166,-0.21388696,-0.9105057,-0.87681913,-0.047714606,0.2697055,2.6134408,-1.5651563,-2.3729053,0.41850007,0.043524936,1.6515546,1.6471738,-0.8930367,1.3337795,0.43281466,0.19427842,1.1873422,0.66991645,-1.6277847,0.86742896,1.4064367,1.572714,0.10744261,0.9226192,-0.1292047,0.03459803,-1.3363167,0.74456984,-0.20978834,0.48785096,0.15229881,1.3777599,0.19599538,0.5467194,0.46659437,0.8824859,-0.851604,0.8206135,1.5799581,1.20664,0.5578625,-0.25348526,-0.69069064,-0.8888548,0.22518209,1.7881769,0.1167889,-0.008704545,0.38319024,1.1102386,1.1500412,-0.3121208,-0.71695656,1.436403,-0.19494306,0.95266455,-0.5003795
e,-0.8288974,0.60513014,1.5130708,0.22886775,0.029024947,1.3533003,-0.3065915,-0.11027457,-0.582238,-0.7237369,-1.0454488,0.97181964,0.48211274,-0.17558908,-1.0392123,-0.6634978,0.83937335,-0.74915594,1.2646437,0.4723104,1.4633328,-0.5147618,-1.5141692,0.54231185,-0.007864728,1.8130409,-2.357526,-0.4022241,0.54038066,0.080144875,0.54979175,1.0658859,0.43277508,0.20507365,-0.8968697,0.73019457,-1.8249806,0.048270453,-0.27743864,-0.02967079,0.28699625,-0.5035611,0.026057964,-0.40260318,2.0026538,-0.29789284,0.7255051,1.6667585,-0.6544754,1.4456513,-2.1458163,0.15270509,-0.25006118,-0.9936507,0.12931375,0.15465048,0.36880463,0.86696285,0.32838055,-1.3240973,1.8122734,-1.4560549,1.7177001,0.19699445
